<?xml version="1.0" encoding="ISO-8859-1"?>
<!-- This file was created by ACADEMIC version of SMILE -->
<smile version="1.0" id="Unnamed" numsamples="10000" discsamples="10000">
	<nodes>
		<cpt id="att_13">
			<state id="S0" />
			<state id="S1" />
			<probabilities>0.5947108204151001 0.4052891795848998</probabilities>
		</cpt>
		<cpt id="att_14">
			<state id="S0" />
			<state id="S1" />
			<parents>att_13</parents>
			<probabilities>0.964019743678559 0.03598025632144095 0.3700762388818297 0.6299237611181703</probabilities>
		</cpt>
		<cpt id="att_10">
			<state id="S0" />
			<state id="S1" />
			<parents>att_13 att_14</parents>
			<probabilities>0.9457019671247642 0.05429803287523578 0.6766826923076923 0.3233173076923077 0.7310332990044628 0.2689667009955373 0.3328963291649858 0.6671036708350141</probabilities>
		</cpt>
		<cpt id="att_11">
			<state id="S0" />
			<state id="S1" />
			<parents>att_10 att_13 att_14</parents>
			<probabilities>0.8048722575743186 0.1951277424256815 0.4592198581560283 0.5407801418439716 0.5485915492957746 0.4514084507042254 0.3509993943064809 0.649000605693519 0.3347107438016529 0.6652892561983471 0.2037037037037037 0.7962962962962963 0.2110969387755102 0.7889030612244897 0.04640266021765417 0.9535973397823457</probabilities>
		</cpt>
		<cpt id="att_12">
			<state id="S0" />
			<state id="S1" />
			<parents>att_10 att_11 att_13 att_14</parents>
			<probabilities>0.9817699115044248 0.01823008849557522 0.8884615384615385 0.1115384615384615 0.9550898203592814 0.04491017964071856 0.9181034482758621 0.08189655172413793 0.8824817518248176 0.1175182481751825 0.6895424836601307 0.3104575163398693 0.8393970893970895 0.1606029106029106 0.6338619402985074 0.3661380597014925 0.8940886699507389 0.1059113300492611 0.7678571428571428 0.2321428571428571 0.9126506024096386 0.08734939759036145 0.75 0.25 0.7555831265508685 0.2444168734491315 0.3564814814814815 0.6435185185185185 0.698707592891761 0.3012924071082391 0.2026941362916006 0.7973058637083994</probabilities>
		</cpt>
		<cpt id="att_15">
			<state id="S0" />
			<state id="S1" />
			<parents>att_10 att_11 att_12 att_14</parents>
			<probabilities>0.9965561089329237 0.003443891067076401 0.9945987654320987 0.005401234567901234 0.9589371980676328 0.04106280193236714 0.8790322580645161 0.1209677419354839 0.9811140785959558 0.01888592140404426 0.9751592356687897 0.02484076433121019 0.8522727272727273 0.1477272727272727 0.6193181818181818 0.3806818181818182 0.9744744744744744 0.02552552552552553 0.9598540145985401 0.04014598540145985 0.9583333333333333 0.04166666666666666 0.788888888888889 0.2111111111111111 0.9748982360922659 0.02510176390773405 0.9063421828908554 0.09365781710914454 0.8298245614035088 0.1701754385964912 0.3928433268858801 0.6071566731141199</probabilities>
		</cpt>
		<cpt id="att_8">
			<state id="S0" />
			<state id="S1" />
			<parents>att_10 att_11 att_12 att_14 att_15</parents>
			<probabilities>0.9564593301435407 0.04354066985645933 0.8333333333333334 0.1666666666666667 0.8860465116279069 0.113953488372093 0.875 0.125 0.8718592964824121 0.1281407035175879 0.5 0.5 0.6454545454545454 0.3545454545454546 0.3125 0.6875 0.8746111975116641 0.1253888024883359 0.63 0.37 0.7304177545691906 0.2695822454308094 0.475 0.525 0.6109467455621301 0.3890532544378698 0.4152542372881356 0.5847457627118644 0.4377289377289377 0.5622710622710623 0.06845238095238095 0.931547619047619 0.8784615384615385 0.1215384615384615 0.611111111111111 0.3888888888888888 0.7765151515151515 0.2234848484848485 0.4166666666666666 0.5833333333333333 0.8142857142857143 0.1857142857142857 0.75 0.25 0.5416666666666666 0.4583333333333333 0.25 0.75 0.8296244784422809 0.170375521557719 0.6578947368421052 0.3421052631578947 0.6414634146341464 0.3585365853658536 0.2578125 0.7421875 0.5084388185654009 0.4915611814345991 0.1938775510204082 0.8061224489795917 0.3056102362204725 0.6943897637795275 0.1684713375796178 0.8315286624203821</probabilities>
		</cpt>
		<cpt id="att_6">
			<state id="S0" />
			<state id="S1" />
			<parents>att_8 att_11 att_12 att_13 att_15</parents>
			<probabilities>0.9559927360774818 0.04400726392251816 0.75 0.25 0.9147492625368732 0.08525073746312684 0.6538461538461539 0.3461538461538461 0.8441176470588235 0.1558823529411765 0.4166666666666666 0.5833333333333333 0.9022988505747126 0.09770114942528735 0.5 0.5 0.883786557208825 0.116213442791175 0.5416666666666666 0.4583333333333333 0.8425175580767154 0.1574824419232847 0.7205882352941176 0.2794117647058824 0.6764705882352942 0.3235294117647059 0.3620689655172414 0.6379310344827586 0.7322761194029851 0.2677238805970149 0.5071174377224199 0.49288256227758 0.4230769230769231 0.576923076923077 0.125 0.875 0.3159203980099503 0.6840796019900497 0.1666666666666667 0.8333333333333333 0.225 0.775 0.5 0.5 0.21875 0.78125 0.1666666666666667 0.8333333333333334 0.301923076923077 0.6980769230769232 0.2368421052631579 0.763157894736842 0.2622549019607843 0.7377450980392157 0.1171875 0.8828125 0.1797385620915033 0.8202614379084967 0.1160714285714286 0.8839285714285714 0.1084905660377359 0.8915094339622642 0.0320945945945946 0.9679054054054055</probabilities>
		</cpt>
		<cpt id="att_9">
			<state id="S0" />
			<state id="S1" />
			<parents>att_6 att_8 att_11 att_13 att_14</parents>
			<probabilities>0.601828499369483 0.398171500630517 0.3295454545454545 0.6704545454545455 0.3292792792792793 0.6707207207207208 0.2254716981132076 0.7745283018867924 0.2925381571509327 0.7074618428490672 0.1992481203007519 0.8007518796992481 0.1890927624872579 0.8109072375127422 0.1313708260105448 0.8686291739894552 0.003401360544217687 0.9965986394557823 0.0625 0.9375 0.01515151515151515 0.9848484848484849 0.01111111111111111 0.9888888888888889 0.005 0.995 0.02941176470588235 0.9705882352941176 0.005882352941176471 0.9941176470588236 0.006410256410256411 0.9935897435897437 0.1718346253229974 0.8281653746770026 0.03846153846153846 0.9615384615384616 0.04736842105263158 0.9526315789473684 0.03846153846153846 0.9615384615384616 0.04865771812080537 0.9513422818791946 0.04285714285714286 0.9571428571428571 0.03694581280788178 0.9630541871921182 0.04868421052631579 0.9513157894736842 0.01157407407407407 0.9884259259259258 0.07142857142857142 0.9285714285714285 0.005050505050505051 0.994949494949495 0.005208333333333333 0.9947916666666666 0.005119453924914676 0.9948805460750854 0.01923076923076923 0.9807692307692307 0.004777070063694268 0.9952229299363058 0.0006055712555510698 0.9993944287444488</probabilities>
		</cpt>
		<cpt id="att_2">
			<state id="S0" />
			<state id="S1" />
			<parents>att_6 att_9 att_11 att_12 att_15</parents>
			<probabilities>0.9558259869681871 0.04417401303181296 0.875 0.125 0.9513888888888888 0.0486111111111111 0.5 0.5 0.910574412532637 0.08942558746736293 0.5909090909090909 0.4090909090909091 0.7884615384615384 0.2115384615384615 0.6481481481481481 0.3518518518518519 0.8909029497860842 0.1090970502139158 0.6944444444444444 0.3055555555555555 0.8696969696969697 0.1303030303030303 0.8125 0.1875 0.8539019963702359 0.1460980036297641 0.7444444444444445 0.2555555555555556 0.8092436974789916 0.1907563025210084 0.7305555555555556 0.2694444444444444 0.4642857142857142 0.5357142857142857 0.25 0.75 0.1 0.9 0.5 0.5 0.3125 0.6875 0.5 0.5 0.375 0.625 0.1363636363636364 0.8636363636363636 0.5224935732647814 0.4775064267352185 0.625 0.375 0.391566265060241 0.6084337349397591 0.2368421052631579 0.763157894736842 0.5275066548358474 0.4724933451641526 0.3489583333333333 0.6510416666666666 0.4228159457167091 0.5771840542832909 0.2238943488943489 0.7761056511056511</probabilities>
		</cpt>
		<cpt id="att_1">
			<state id="S0" />
			<state id="S1" />
			<parents>att_2 att_6 att_8 att_9 att_12</parents>
			<probabilities>0.9751754385964911 0.02482456140350877 0.8537414965986394 0.1462585034013605 0.9331156872593336 0.06688431274066632 0.8373786407766991 0.162621359223301 0.75 0.25 0.5 0.5 0.8573298429319373 0.1426701570680628 0.7206896551724138 0.2793103448275862 0.782051282051282 0.217948717948718 0.5 0.5 0.7959381044487428 0.2040618955512573 0.65625 0.34375 0.25 0.75 0.75 0.25 0.7349056603773585 0.2650943396226415 0.4633977900552486 0.5366022099447514 0.8009868421052632 0.1990131578947368 0.293103448275862 0.7068965517241379 0.7591019417475727 0.2408980582524272 0.59765625 0.40234375 0.5 0.5 0.5 0.5 0.7312500000000001 0.26875 0.3070175438596491 0.6929824561403508 0.4622641509433962 0.5377358490566038 0.2368421052631579 0.763157894736842 0.5011013215859031 0.498898678414097 0.2981220657276996 0.7018779342723005 0.1666666666666667 0.8333333333333333 0.1666666666666667 0.8333333333333333 0.3932692307692308 0.6067307692307693 0.1545100222717149 0.845489977728285</probabilities>
		</cpt>
		<cpt id="att_0">
			<state id="S0" />
			<state id="S1" />
			<parents>att_1 att_2 att_6 att_15</parents>
			<probabilities>0.9746220302375811 0.02537796976241901 0.9319526627218935 0.06804733727810651 0.9090497737556561 0.0909502262443439 0.8250000000000001 0.175 0.8559236947791163 0.1440763052208835 0.7121212121212122 0.2878787878787879 0.6266129032258064 0.3733870967741936 0.4723756906077348 0.5276243093922651 0.9118476727785614 0.08815232722143865 0.84375 0.15625 0.801063829787234 0.198936170212766 0.7097457627118644 0.2902542372881356 0.6545189504373178 0.3454810495626822 0.65625 0.34375 0.4416126042632067 0.5583873957367933 0.207731520815633 0.792268479184367</probabilities>
		</cpt>
		<cpt id="att_7">
			<state id="S0" />
			<state id="S1" />
			<parents>att_2 att_6 att_8 att_9 att_13</parents>
			<probabilities>0.9910679230467216 0.008932076953278367 0.9541832669322708 0.04581673306772908 0.8203260064213386 0.1796739935786614 0.6972856018882769 0.3027143981117231 0.5 0.5 0.25 0.75 0.323394495412844 0.676605504587156 0.2475728155339806 0.7524271844660194 0.6212121212121212 0.3787878787878788 0.6818181818181819 0.3181818181818182 0.4338709677419355 0.5661290322580645 0.3120104438642298 0.6879895561357703 0.25 0.75 0.25 0.75 0.1108597285067873 0.8891402714932127 0.037270087124879 0.962729912875121 0.9154135338345865 0.08458646616541353 0.8731343283582089 0.1268656716417911 0.709009009009009 0.290990990990991 0.5453400503778337 0.4546599496221662 0.5 0.5 0.5 0.5 0.2596153846153846 0.7403846153846154 0.1352941176470588 0.8647058823529412 0.47 0.53 0.4772727272727273 0.5227272727272727 0.2691176470588235 0.7308823529411764 0.2064220183486239 0.7935779816513762 0.125 0.875 0.25 0.75 0.03678474114441417 0.9632152588555858 0.01718830169317599 0.9828116983068239</probabilities>
		</cpt>
		<cpt id="att_5">
			<state id="S0" />
			<state id="S1" />
			<parents>att_2 att_7 att_9 att_10 att_13</parents>
			<probabilities>0.9382728562740726 0.06172714372592743 0.8022847100175746 0.1977152899824253 0.864963503649635 0.135036496350365 0.6930379746835443 0.3069620253164557 0.7069957601453665 0.2930042398546335 0.5423664122137405 0.4576335877862595 0.6084337349397589 0.3915662650602409 0.4196556671449068 0.5803443328550932 0.4298245614035088 0.5701754385964912 0.5689655172413793 0.4310344827586207 0.5 0.5 0.125 0.875 0.2990950226244344 0.7009049773755657 0.1661764705882353 0.8338235294117647 0.2711267605633803 0.7288732394366197 0.1036290322580645 0.8963709677419355 0.443359375 0.556640625 0.3604651162790697 0.6395348837209303 0.2916666666666666 0.7083333333333333 0.611111111111111 0.3888888888888888 0.2922912205567452 0.7077087794432548 0.1694444444444445 0.8305555555555556 0.2333333333333333 0.7666666666666667 0.151006711409396 0.848993288590604 0.1530612244897959 0.846938775510204 0.1923076923076923 0.8076923076923077 0.125 0.875 0.05555555555555555 0.9444444444444444 0.07330246913580246 0.9266975308641975 0.03290529695024077 0.9670947030497592 0.04220779220779221 0.9577922077922079 0.02242524916943521 0.9775747508305648</probabilities>
		</cpt>
		<cpt id="att_3">
			<state id="S0" />
			<state id="S1" />
			<parents>att_2 att_5 att_9 att_11 att_13</parents>
			<probabilities>0.9323765786452354 0.06762342135476464 0.8123287671232877 0.1876712328767123 0.8313397129186603 0.1686602870813397 0.7557077625570776 0.2442922374429224 0.7873777363763391 0.2126222636236609 0.6598214285714286 0.3401785714285714 0.6574858757062146 0.3425141242937853 0.5958164642375169 0.4041835357624831 0.3469750889679715 0.6530249110320284 0.255 0.745 0.2828947368421053 0.7171052631578947 0.3630952380952381 0.6369047619047619 0.2906468531468531 0.7093531468531469 0.2037292817679558 0.7962707182320442 0.2384230287859825 0.7615769712140176 0.1804192685102587 0.8195807314897413 0.5679611650485437 0.4320388349514563 0.3125 0.6875 0.7045454545454546 0.2954545454545455 0.7962962962962963 0.2037037037037037 0.4770992366412213 0.5229007633587786 0.3275862068965517 0.6724137931034483 0.35 0.65 0.3117647058823529 0.6882352941176471 0.1587837837837838 0.8412162162162162 0.1666666666666667 0.8333333333333333 0.1354166666666667 0.8645833333333333 0.2361111111111111 0.7638888888888888 0.1911487758945386 0.8088512241054614 0.1296992481203008 0.8703007518796992 0.1417525773195876 0.8582474226804123 0.1158536585365854 0.8841463414634146</probabilities>
		</cpt>
		<cpt id="att_4">
			<state id="S0" />
			<state id="S1" />
			<parents>att_3 att_9 att_11 att_13 att_14</parents>
			<probabilities>0.9039742979533555 0.09602570204664446 0.4078947368421053 0.5921052631578947 0.087890625 0.912109375 0.1597222222222222 0.8402777777777777 0.7296195652173912 0.2703804347826087 0.6739130434782609 0.3260869565217391 0.1762295081967213 0.8237704918032788 0.4567307692307693 0.5432692307692308 0.7698636577338974 0.2301363422661025 0.4583333333333333 0.5416666666666666 0.09491978609625668 0.9050802139037433 0.07219251336898395 0.927807486631016 0.5938395415472779 0.406160458452722 0.4846153846153847 0.5153846153846154 0.08734177215189874 0.9126582278481012 0.2277556440903054 0.7722443559096945 0.66953125 0.33046875 0.5 0.5 0.09130434782608696 0.908695652173913 0.08823529411764705 0.9117647058823529 0.5150602409638555 0.4849397590361446 0.07142857142857142 0.9285714285714285 0.07534246575342465 0.9246575342465753 0.1417910447761194 0.8582089552238806 0.5157802454704851 0.4842197545295149 0.3909090909090909 0.609090909090909 0.03800675675675676 0.9619932432432433 0.02464788732394366 0.9753521126760564 0.3399837133550489 0.6600162866449512 0.2053571428571428 0.7946428571428571 0.03172205438066465 0.9682779456193353 0.03313161875945537 0.9668683812405445</probabilities>
		</cpt>
	</nodes>
	<extensions>
		<genie version="1.0" app="SMILE_ACADEMIC 1.2.1@64858e074dd1" name="Unnamed" faultnameformat="nodestate">
			<node id="att_0">
				<name>att_0</name>
				<interior color="e5f6f7" />
				<outline color="0000bb" />
				<font color="000000" name="MS Sans Serif" size="8" />
				<position>-38 -18 38 18</position>
			</node>
			<node id="att_1">
				<name>att_1</name>
				<interior color="e5f6f7" />
				<outline color="0000bb" />
				<font color="000000" name="MS Sans Serif" size="8" />
				<position>-38 -18 38 18</position>
			</node>
			<node id="att_2">
				<name>att_2</name>
				<interior color="e5f6f7" />
				<outline color="0000bb" />
				<font color="000000" name="MS Sans Serif" size="8" />
				<position>-38 -18 38 18</position>
			</node>
			<node id="att_3">
				<name>att_3</name>
				<interior color="e5f6f7" />
				<outline color="0000bb" />
				<font color="000000" name="MS Sans Serif" size="8" />
				<position>-38 -18 38 18</position>
			</node>
			<node id="att_4">
				<name>att_4</name>
				<interior color="e5f6f7" />
				<outline color="0000bb" />
				<font color="000000" name="MS Sans Serif" size="8" />
				<position>-38 -18 38 18</position>
			</node>
			<node id="att_5">
				<name>att_5</name>
				<interior color="e5f6f7" />
				<outline color="0000bb" />
				<font color="000000" name="MS Sans Serif" size="8" />
				<position>-38 -18 38 18</position>
			</node>
			<node id="att_6">
				<name>att_6</name>
				<interior color="e5f6f7" />
				<outline color="0000bb" />
				<font color="000000" name="MS Sans Serif" size="8" />
				<position>-38 -18 38 18</position>
			</node>
			<node id="att_7">
				<name>att_7</name>
				<interior color="e5f6f7" />
				<outline color="0000bb" />
				<font color="000000" name="MS Sans Serif" size="8" />
				<position>-38 -18 38 18</position>
			</node>
			<node id="att_8">
				<name>att_8</name>
				<interior color="e5f6f7" />
				<outline color="0000bb" />
				<font color="000000" name="MS Sans Serif" size="8" />
				<position>-38 -18 38 18</position>
			</node>
			<node id="att_9">
				<name>att_9</name>
				<interior color="e5f6f7" />
				<outline color="0000bb" />
				<font color="000000" name="MS Sans Serif" size="8" />
				<position>-38 -18 38 18</position>
			</node>
			<node id="att_10">
				<name>att_10</name>
				<interior color="e5f6f7" />
				<outline color="0000bb" />
				<font color="000000" name="MS Sans Serif" size="8" />
				<position>-38 -18 38 18</position>
			</node>
			<node id="att_11">
				<name>att_11</name>
				<interior color="e5f6f7" />
				<outline color="0000bb" />
				<font color="000000" name="MS Sans Serif" size="8" />
				<position>-38 -18 38 18</position>
			</node>
			<node id="att_12">
				<name>att_12</name>
				<interior color="e5f6f7" />
				<outline color="0000bb" />
				<font color="000000" name="MS Sans Serif" size="8" />
				<position>-38 -18 38 18</position>
			</node>
			<node id="att_13">
				<name>att_13</name>
				<interior color="e5f6f7" />
				<outline color="0000bb" />
				<font color="000000" name="MS Sans Serif" size="8" />
				<position>-38 -18 38 18</position>
			</node>
			<node id="att_14">
				<name>att_14</name>
				<interior color="e5f6f7" />
				<outline color="0000bb" />
				<font color="000000" name="MS Sans Serif" size="8" />
				<position>-38 -18 38 18</position>
			</node>
			<node id="att_15">
				<name>att_15</name>
				<interior color="e5f6f7" />
				<outline color="0000bb" />
				<font color="000000" name="MS Sans Serif" size="8" />
				<position>-38 -18 38 18</position>
			</node>
		</genie>
	</extensions>
</smile>
